<?xml version="1.0"?>
<opencv_storage>
<haar_carplate type_id="opencv-haar-classifier">
  <size>
    76 20</size>
  <stages>
    <_>
      <trees>
        <_>
          <_>
            <feature>
              <rects>
                <_>
                  12 0 20 4 -1.</_>
                <_>
                  12 2 20 2 2.</_></rects>
              <tilted>0</tilted></feature>
            <threshold>-0.0107604600489140</threshold>
            <left_val>0.8737797737121582</left_val>
            <right_val>-0.6662850975990295</right_val></_></_>
        <_>
          <_>
            <feature>
              <rects>
                <_>
                  34 3 8 17 -1.</_>
                <_>
                  38 3 4 17 2.</_></rects>
              <tilted>0</tilted></feature>
            <threshold>-5.5969478562474251e-003</threshold>
            <left_val>0.7541316747665405</left_val>
            <right_val>-0.6054000854492188</right_val></_></_>
        <_>
          <_>
            <feature>
              <rects>
                <_>
                  19 18 20 2 -1.</_>
                <_>
                  19 19 20 1 2.</_></rects>
              <tilted>0</tilted></feature>
            <threshold>2.0904289558529854e-003</threshold>
            <left_val>-0.5602136254310608</left_val>
            <right_val>0.7493615150451660</right_val></_></_></trees>
      <stage_threshold>-0.5223237276077271</stage_threshold>
      <parent>-1</parent>
      <next>-1</next></_>
    <_>
      <trees>
        <_>
          <_>
            <feature>
              <rects>
                <_>
                  25 12 6 8 -1.</_>
                <_>
                  27 12 2 8 3.</_></rects>
              <tilted>0</tilted></feature>
            <threshold>6.1919880099594593e-003</threshold>
            <left_val>-0.4487299919128418</left_val>
            <right_val>0.8696506023406982</right_val></_></_>
        <_>
          <_>
            <feature>
              <rects>
                <_>
                  18 0 20 8 -1.</_>
                <_>
                  18 2 20 4 2.</_></rects>
              <tilted>0</tilted></feature>
            <threshold>-0.0148266097530723</threshold>
            <left_val>0.6691671013832092</left_val>
            <right_val>-0.5678238868713379</right_val></_></_>
        <_>
          <_>
            <feature>
              <rects>
                <_>
                  19 4 4 15 -1.</_>
                <_>
                  20 4 2 15 2.</_></rects>
              <tilted>0</tilted></feature>
            <threshold>3.5445620305836201e-003</threshold>
            <left_val>-0.4394376873970032</left_val>
            <right_val>0.8242217898368835</right_val></_></_></trees>
      <stage_threshold>-0.2190005928277969</stage_threshold>
      <parent>0</parent>
      <next>-1</next></_>
    <_>
      <trees>
        <_>
          <_>
            <feature>
              <rects>
                <_>
                  36 0 12 6 -1.</_>
                <_>
                  40 2 4 2 9.</_></rects>
              <tilted>0</tilted></feature>
            <threshold>-0.0209335107356310</threshold>
            <left_val>0.7776836156845093</left_val>
            <right_val>-0.5898438096046448</right_val></_></_>
        <_>
          <_>
            <feature>
              <rects>
                <_>
                  35 10 6 1 -1.</_>
                <_>
                  37 12 2 1 3.</_></rects>
              <tilted>1</tilted></feature>
            <threshold>3.3405150752514601e-003</threshold>
            <left_val>-0.4271115064620972</left_val>
            <right_val>0.8348668217658997</right_val></_></_>
        <_>
          <_>
            <feature>
              <rects>
                <_>
                  13 2 57 9 -1.</_>
                <_>
                  32 5 19 3 9.</_></rects>
              <tilted>0</tilted></feature>
            <threshold>1.7951360496226698e-004</threshold>
            <left_val>-0.8953310251235962</left_val>
            <right_val>0.5373510122299194</right_val></_></_>
        <_>
          <_>
            <feature>
              <rects>
                <_>
                  31 14 6 3 -1.</_>
                <_>
                  33 14 2 3 3.</_></rects>
              <tilted>0</tilted></feature>
            <threshold>5.6447507813572884e-003</threshold>
            <left_val>-0.6835814714431763</left_val>
            <right_val>0.9163571000099182</right_val></_></_>
        <_>
          <_>
            <feature>
              <rects>
                <_>
                  5 0 20 8 -1.</_>
                <_>
                  5 2 20 4 2.</_></rects>
              <tilted>0</tilted></feature>
            <threshold>-1.7940639518201351e-003</threshold>
            <left_val>0.6029450893402100</left_val>
            <right_val>-0.9653369784355164</right_val></_></_></trees>
      <stage_threshold>-0.8665444850921631</stage_threshold>
      <parent>1</parent>
      <next>-1</next></_>
    <_>
      <trees>
        <_>
          <_>
            <feature>
              <rects>
                <_>
                  19 4 6 13 -1.</_>
                <_>
                  21 4 2 13 3.</_></rects>
              <tilted>0</tilted></feature>
            <threshold>0.0152236996218562</threshold>
            <left_val>-0.3976506888866425</left_val>
            <right_val>0.9422882795333862</right_val></_></_>
        <_>
          <_>
            <feature>
              <rects>
                <_>
                  46 4 6 3 -1.</_>
                <_>
                  48 4 2 3 3.</_></rects>
              <tilted>0</tilted></feature>
            <threshold>3.2011249568313360e-003</threshold>
            <left_val>-0.3283249139785767</left_val>
            <right_val>0.8102571964263916</right_val></_></_>
        <_>
          <_>
            <feature>
              <rects>
                <_>
                  18 10 20 4 -1.</_>
                <_>
                  18 12 20 2 2.</_></rects>
              <tilted>0</tilted></feature>
            <threshold>1.1903219856321812e-003</threshold>
            <left_val>-0.6734526157379150</left_val>
            <right_val>0.5179573893547058</right_val></_></_>
        <_>
          <_>
            <feature>
              <rects>
                <_>
                  34 0 6 18 -1.</_>
                <_>
                  37 0 3 18 2.</_></rects>
              <tilted>0</tilted></feature>
            <threshold>-0.0164074394851923</threshold>
            <left_val>0.7280647754669190</left_val>
            <right_val>-0.5196694731712341</right_val></_></_>
        <_>
          <_>
            <feature>
              <rects>
                <_>
                  5 5 12 11 -1.</_>
                <_>
                  8 5 6 11 2.</_></rects>
              <tilted>0</tilted></feature>
            <threshold>0.0114439995959401</threshold>
            <left_val>-0.5012258291244507</left_val>
            <right_val>0.8194227814674377</right_val></_></_></trees>
      <stage_threshold>-1.1725889444351196</stage_threshold>
      <parent>2</parent>
      <next>-1</next></_>
    <_>
      <trees>
        <_>
          <_>
            <feature>
              <rects>
                <_>
                  45 9 9 9 -1.</_>
                <_>
                  48 12 3 3 9.</_></rects>
              <tilted>0</tilted></feature>
            <threshold>0.0246684700250626</threshold>
            <left_val>-0.4296154975891113</left_val>
            <right_val>0.7022448778152466</right_val></_></_>
        <_>
          <_>
            <feature>
              <rects>
                <_>
                  56 0 6 6 -1.</_>
                <_>
                  58 2 2 2 9.</_></rects>
              <tilted>0</tilted></feature>
            <threshold>-0.0147909196093678</threshold>
            <left_val>0.8538200259208679</left_val>
            <right_val>-0.3646422922611237</right_val></_></_>
        <_>
          <_>
            <feature>
              <rects>
                <_>
                  12 17 20 3 -1.</_>
                <_>
                  12 18 20 1 3.</_></rects>
              <tilted>0</tilted></feature>
            <threshold>-3.0825899448245764e-003</threshold>
            <left_val>0.6386200189590454</left_val>
            <right_val>-0.4143179059028626</right_val></_></_>
        <_>
          <_>
            <feature>
              <rects>
                <_>
                  51 6 9 6 -1.</_>
                <_>
                  54 6 3 6 3.</_></rects>
              <tilted>0</tilted></feature>
            <threshold>0.0135628404095769</threshold>
            <left_val>-0.3491730988025665</left_val>
            <right_val>0.8609704971313477</right_val></_></_>
        <_>
          <_>
            <feature>
              <rects>
                <_>
                  25 5 6 14 -1.</_>
                <_>
                  27 5 2 14 3.</_></rects>
              <tilted>0</tilted></feature>
            <threshold>0.0160202700644732</threshold>
            <left_val>-0.4283451139926910</left_val>
            <right_val>0.7903981208801270</right_val></_></_></trees>
      <stage_threshold>-0.9331560730934143</stage_threshold>
      <parent>3</parent>
      <next>-1</next></_>
    <_>
      <trees>
        <_>
          <_>
            <feature>
              <rects>
                <_>
                  19 0 20 4 -1.</_>
                <_>
                  19 2 20 2 2.</_></rects>
              <tilted>0</tilted></feature>
            <threshold>-9.1436924412846565e-003</threshold>
            <left_val>0.5052180886268616</left_val>
            <right_val>-0.6095613837242127</right_val></_></_>
        <_>
          <_>
            <feature>
              <rects>
                <_>
                  63 9 6 7 -1.</_>
                <_>
                  65 9 2 7 3.</_></rects>
              <tilted>0</tilted></feature>
            <threshold>6.8525969982147217e-003</threshold>
            <left_val>-0.3432390987873077</left_val>
            <right_val>0.7971671819686890</right_val></_></_>
        <_>
          <_>
            <feature>
              <rects>
                <_>
                  15 18 20 2 -1.</_>
                <_>
                  15 19 20 1 2.</_></rects>
              <tilted>0</tilted></feature>
            <threshold>3.5964660346508026e-003</threshold>
            <left_val>-0.4897981882095337</left_val>
            <right_val>0.6980831027030945</right_val></_></_>
        <_>
          <_>
            <feature>
              <rects>
                <_>
                  23 2 21 9 -1.</_>
                <_>
                  30 5 7 3 9.</_></rects>
              <tilted>0</tilted></feature>
            <threshold>8.2687847316265106e-004</threshold>
            <left_val>-0.9019063711166382</left_val>
            <right_val>0.3540293872356415</right_val></_></_>
        <_>
          <_>
            <feature>
              <rects>
                <_>
                  0 0 24 1 -1.</_>
                <_>
                  8 0 8 1 3.</_></rects>
              <tilted>0</tilted></feature>
            <threshold>5.7881861721398309e-006</threshold>
            <left_val>-0.8580421209335327</left_val>
            <right_val>0.3767204880714417</right_val></_></_>
        <_>
          <_>
            <feature>
              <rects>
                <_>
                  38 19 20 1 -1.</_>
                <_>
                  43 19 10 1 2.</_></rects>
              <tilted>0</tilted></feature>
            <threshold>1.0131099770660512e-005</threshold>
            <left_val>-0.8809648156166077</left_val>
            <right_val>0.5198971033096314</right_val></_></_>
        <_>
          <_>
            <feature>
              <rects>
                <_>
                  10 11 62 1 -1.</_>
                <_>
                  41 11 31 1 2.</_></rects>
              <tilted>0</tilted></feature>
            <threshold>7.7221127867233008e-005</threshold>
            <left_val>-0.9466223716735840</left_val>
            <right_val>0.4253404140472412</right_val></_></_></trees>
      <stage_threshold>-1.2541040182113647</stage_threshold>
      <parent>4</parent>
      <next>-1</next></_>
    <_>
      <trees>
        <_>
          <_>
            <feature>
              <rects>
                <_>
                  7 0 18 4 -1.</_>
                <_>
                  7 2 18 2 2.</_></rects>
              <tilted>0</tilted></feature>
            <threshold>-0.0108114099130034</threshold>
            <left_val>0.6615852117538452</left_val>
            <right_val>-0.6040269732475281</right_val></_></_>
        <_>
          <_>
            <feature>
              <rects>
                <_>
                  0 9 66 9 -1.</_>
                <_>
                  22 12 22 3 9.</_></rects>
              <tilted>0</tilted></feature>
            <threshold>1.6724290326237679e-003</threshold>
            <left_val>-0.6488342285156250</left_val>
            <right_val>0.5132939815521240</right_val></_></_>
        <_>
          <_>
            <feature>
              <rects>
                <_>
                  53 10 6 6 -1.</_>
                <_>
                  55 10 2 6 3.</_></rects>
              <tilted>0</tilted></feature>
            <threshold>3.5322280600667000e-003</threshold>
            <left_val>-0.5668072104454041</left_val>
            <right_val>0.6399499773979187</right_val></_></_>
        <_>
          <_>
            <feature>
              <rects>
                <_>
                  36 6 9 3 -1.</_>
                <_>
                  35 7 9 1 3.</_></rects>
              <tilted>1</tilted></feature>
            <threshold>2.3429770953953266e-003</threshold>
            <left_val>-0.7214354276657105</left_val>
            <right_val>0.6333749294281006</right_val></_></_>
        <_>
          <_>
            <feature>
              <rects>
                <_>
                  2 7 50 1 -1.</_>
                <_>
                  27 7 25 1 2.</_></rects>
              <tilted>0</tilted></feature>
            <threshold>1.0691549687180668e-004</threshold>
            <left_val>-0.9285880923271179</left_val>
            <right_val>0.4895587861537933</right_val></_></_>
        <_>
          <_>
            <feature>
              <rects>
                <_>
                  8 5 13 6 -1.</_>
                <_>
                  8 7 13 2 3.</_></rects>
              <tilted>0</tilted></feature>
            <threshold>3.5383109207032248e-005</threshold>
            <left_val>-0.9492434859275818</left_val>
            <right_val>0.4953115880489349</right_val></_></_>
        <_>
          <_>
            <feature>
              <rects>
                <_>
                  18 0 28 5 -1.</_>
                <_>
                  25 0 14 5 2.</_></rects>
              <tilted>0</tilted></feature>
            <threshold>1.4389250427484512e-003</threshold>
            <left_val>-0.9922456741333008</left_val>
            <right_val>0.4679405987262726</right_val></_></_>
        <_>
          <_>
            <feature>
              <rects>
                <_>
                  3 3 36 2 -1.</_>
                <_>
                  21 3 18 2 2.</_></rects>
              <tilted>0</tilted></feature>
            <threshold>-6.2006671214476228e-004</threshold>
            <left_val>0.7188447117805481</left_val>
            <right_val>-0.9923995733261108</right_val></_></_>
        <_>
          <_>
            <feature>
              <rects>
                <_>
                  2 2 72 18 -1.</_>
                <_>
                  26 2 24 18 3.</_></rects>
              <tilted>0</tilted></feature>
            <threshold>0.0106712095439434</threshold>
            <left_val>-0.9761502146720886</left_val>
            <right_val>0.6121389865875244</right_val></_></_>
        <_>
          <_>
            <feature>
              <rects>
                <_>
                  20 12 10 8 -1.</_>
                <_>
                  20 12 5 4 2.</_>
                <_>
                  25 16 5 4 2.</_></rects>
              <tilted>0</tilted></feature>
            <threshold>8.3247257862240076e-004</threshold>
            <left_val>-0.9839872121810913</left_val>
            <right_val>0.6349064111709595</right_val></_></_>
        <_>
          <_>
            <feature>
              <rects>
                <_>
                  10 7 14 8 -1.</_>
                <_>
                  10 9 14 4 2.</_></rects>
              <tilted>0</tilted></feature>
            <threshold>-4.0028960938798264e-005</threshold>
            <left_val>0.8277785778045654</left_val>
            <right_val>-0.9999998211860657</right_val></_></_></trees>
      <stage_threshold>-0.9726533889770508</stage_threshold>
      <parent>5</parent>
      <next>-1</next></_>
    <_>
      <trees>
        <_>
          <_>
            <feature>
              <rects>
                <_>
                  29 1 21 6 -1.</_>
                <_>
                  36 3 7 2 9.</_></rects>
              <tilted>0</tilted></feature>
            <threshold>-3.3395139034837484e-003</threshold>
            <left_val>0.5720869898796082</left_val>
            <right_val>-0.7403023838996887</right_val></_></_>
        <_>
          <_>
            <feature>
              <rects>
                <_>
                  18 0 15 4 -1.</_>
                <_>
                  18 2 15 2 2.</_></rects>
              <tilted>0</tilted></feature>
            <threshold>-0.0126745197921991</threshold>
            <left_val>0.7090324759483337</left_val>
            <right_val>-0.5242797732353210</right_val></_></_>
        <_>
          <_>
            <feature>
              <rects>
                <_>
                  41 2 24 9 -1.</_>
                <_>
                  49 5 8 3 9.</_></rects>
              <tilted>0</tilted></feature>
            <threshold>4.9587199464440346e-003</threshold>
            <left_val>-0.6506881117820740</left_val>
            <right_val>0.4475134015083313</right_val></_></_>
        <_>
          <_>
            <feature>
              <rects>
                <_>
                  22 8 4 11 -1.</_>
                <_>
                  24 8 2 11 2.</_></rects>
              <tilted>0</tilted></feature>
            <threshold>-0.0105221103876829</threshold>
            <left_val>0.9208477735519409</left_val>
            <right_val>-0.4550786018371582</right_val></_></_>
        <_>
          <_>
            <feature>
              <rects>
                <_>
                  20 2 6 6 -1.</_>
                <_>
                  22 2 2 6 3.</_></rects>
              <tilted>0</tilted></feature>
            <threshold>-6.8465829826891422e-003</threshold>
            <left_val>0.8775451779365540</left_val>
            <right_val>-0.3647303879261017</right_val></_></_></trees>
      <stage_threshold>-0.4035654962062836</stage_threshold>
      <parent>6</parent>
      <next>-1</next></_>
    <_>
      <trees>
        <_>
          <_>
            <feature>
              <rects>
                <_>
                  0 9 3 4 -1.</_>
                <_>
                  0 10 3 2 2.</_></rects>
              <tilted>0</tilted></feature>
            <threshold>-1.7336879682261497e-004</threshold>
            <left_val>-0.8925126791000366</left_val>
            <right_val>0.2998009920120239</right_val></_></_>
        <_>
          <_>
            <feature>
              <rects>
                <_>
                  30 0 12 1 -1.</_>
                <_>
                  36 0 6 1 2.</_></rects>
              <tilted>0</tilted></feature>
            <threshold>-1.2797509552910924e-003</threshold>
            <left_val>-0.8437091708183289</left_val>
            <right_val>0.2942304909229279</right_val></_></_>
        <_>
          <_>
            <feature>
              <rects>
                <_>
                  40 10 6 9 -1.</_>
                <_>
                  42 13 2 3 9.</_></rects>
              <tilted>0</tilted></feature>
            <threshold>0.0192869696766138</threshold>
            <left_val>-0.4045175909996033</left_val>
            <right_val>0.7148295044898987</right_val></_></_>
        <_>
          <_>
            <feature>
              <rects>
                <_>
                  0 0 2 4 -1.</_>
                <_>
                  0 1 2 2 2.</_></rects>
              <tilted>0</tilted></feature>
            <threshold>1.5341979451477528e-004</threshold>
            <left_val>0.3114875853061676</left_val>
            <right_val>-0.8751431107521057</right_val></_></_>
        <_>
          <_>
            <feature>
              <rects>
                <_>
                  6 16 4 4 -1.</_>
                <_>
                  6 18 4 2 2.</_></rects>
              <tilted>0</tilted></feature>
            <threshold>4.1569428867660463e-004</threshold>
            <left_val>-0.5841798782348633</left_val>
            <right_val>0.4300979077816010</right_val></_></_>
        <_>
          <_>
            <feature>
              <rects>
                <_>
                  66 13 8 2 -1.</_>
                <_>
                  70 13 4 2 2.</_></rects>
              <tilted>0</tilted></feature>
            <threshold>-1.9250100012868643e-003</threshold>
            <left_val>0.6311978101730347</left_val>
            <right_val>-0.4730426967144013</right_val></_></_></trees>
      <stage_threshold>-0.7342569231987000</stage_threshold>
      <parent>7</parent>
      <next>-1</next></_>
    <_>
      <trees>
        <_>
          <_>
            <feature>
              <rects>
                <_>
                  0 0 2 4 -1.</_>
                <_>
                  0 1 2 2 2.</_></rects>
              <tilted>0</tilted></feature>
            <threshold>-1.4100999396760017e-004</threshold>
            <left_val>-0.8537688255310059</left_val>
            <right_val>0.2991249859333038</right_val></_></_>
        <_>
          <_>
            <feature>
              <rects>
                <_>
                  1 2 74 7 -1.</_>
                <_>
                  38 2 37 7 2.</_></rects>
              <tilted>0</tilted></feature>
            <threshold>0.0491876006126404</threshold>
            <left_val>0.2617267966270447</left_val>
            <right_val>-0.8368296027183533</right_val></_></_>
        <_>
          <_>
            <feature>
              <rects>
                <_>
                  38 14 6 6 -1.</_>
                <_>
                  38 14 3 3 2.</_>
                <_>
                  41 17 3 3 2.</_></rects>
              <tilted>0</tilted></feature>
            <threshold>-4.2907628230750561e-003</threshold>
            <left_val>0.7611473202705383</left_val>
            <right_val>-0.3535591065883637</right_val></_></_>
        <_>
          <_>
            <feature>
              <rects>
                <_>
                  37 5 36 2 -1.</_>
                <_>
                  55 5 18 2 2.</_></rects>
              <tilted>0</tilted></feature>
            <threshold>-0.0108955204486847</threshold>
            <left_val>-0.7047076821327210</left_val>
            <right_val>0.3721089065074921</right_val></_></_>
        <_>
          <_>
            <feature>
              <rects>
                <_>
                  43 3 3 3 -1.</_>
                <_>
                  44 4 1 3 3.</_></rects>
              <tilted>1</tilted></feature>
            <threshold>2.0841029472649097e-003</threshold>
            <left_val>-0.4813602864742279</left_val>
            <right_val>0.5297170877456665</right_val></_></_>
        <_>
          <_>
            <feature>
              <rects>
                <_>
                  9 15 6 2 -1.</_>
                <_>
                  11 15 2 2 3.</_></rects>
              <tilted>0</tilted></feature>
            <threshold>3.9040478877723217e-003</threshold>
            <left_val>-0.3382599949836731</left_val>
            <right_val>0.8043789267539978</right_val></_></_></trees>
      <stage_threshold>-0.3820351064205170</stage_threshold>
      <parent>8</parent>
      <next>-1</next></_>
    <_>
      <trees>
        <_>
          <_>
            <feature>
              <rects>
                <_>
                  1 19 12 1 -1.</_>
                <_>
                  4 19 6 1 2.</_></rects>
              <tilted>0</tilted></feature>
            <threshold>7.4886757647618651e-004</threshold>
            <left_val>-0.5351330041885376</left_val>
            <right_val>0.4380243122577667</right_val></_></_>
        <_>
          <_>
            <feature>
              <rects>
                <_>
                  0 8 2 3 -1.</_>
                <_>
                  0 9 2 1 3.</_></rects>
              <tilted>0</tilted></feature>
            <threshold>-1.1467639706097543e-004</threshold>
            <left_val>-0.8725231885910034</left_val>
            <right_val>0.2420935034751892</right_val></_></_>
        <_>
          <_>
            <feature>
              <rects>
                <_>
                  0 9 4 8 -1.</_>
                <_>
                  0 11 4 4 2.</_></rects>
              <tilted>0</tilted></feature>
            <threshold>-7.4744300218299031e-004</threshold>
            <left_val>-0.8374714255332947</left_val>
            <right_val>0.2851904034614563</right_val></_></_>
        <_>
          <_>
            <feature>
              <rects>
                <_>
                  11 18 20 2 -1.</_>
                <_>
                  11 19 20 1 2.</_></rects>
              <tilted>0</tilted></feature>
            <threshold>4.6323998831212521e-003</threshold>
            <left_val>-0.4322223067283630</left_val>
            <right_val>0.5779836773872376</right_val></_></_>
        <_>
          <_>
            <feature>
              <rects>
                <_>
                  5 0 6 4 -1.</_>
                <_>
                  5 2 6 2 2.</_></rects>
              <tilted>0</tilted></feature>
            <threshold>-3.9292740984819829e-004</threshold>
            <left_val>0.3302085995674133</left_val>
            <right_val>-0.7327882051467896</right_val></_></_>
        <_>
          <_>
            <feature>
              <rects>
                <_>
                  13 8 6 11 -1.</_>
                <_>
                  15 8 2 11 3.</_></rects>
              <tilted>0</tilted></feature>
            <threshold>0.0107424296438694</threshold>
            <left_val>-0.4073936939239502</left_val>
            <right_val>0.7816739082336426</right_val></_></_></trees>
      <stage_threshold>-0.6667609214782715</stage_threshold>
      <parent>9</parent>
      <next>-1</next></_>
    <_>
      <trees>
        <_>
          <_>
            <feature>
              <rects>
                <_>
                  38 0 9 6 -1.</_>
                <_>
                  41 2 3 2 9.</_></rects>
              <tilted>0</tilted></feature>
            <threshold>-0.0256633702665567</threshold>
            <left_val>0.6100111007690430</left_val>
            <right_val>-0.3805508911609650</right_val></_></_>
        <_>
          <_>
            <feature>
              <rects>
                <_>
                  14 18 6 2 -1.</_>
                <_>
                  14 19 6 1 2.</_></rects>
              <tilted>0</tilted></feature>
            <threshold>5.5635021999478340e-004</threshold>
            <left_val>-0.4991588890552521</left_val>
            <right_val>0.4262135028839111</right_val></_></_>
        <_>
          <_>
            <feature>
              <rects>
                <_>
                  52 8 6 5 -1.</_>
                <_>
                  54 8 2 5 3.</_></rects>
              <tilted>0</tilted></feature>
            <threshold>5.2771382033824921e-003</threshold>
            <left_val>-0.4189924895763397</left_val>
            <right_val>0.6321852803230286</right_val></_></_>
        <_>
          <_>
            <feature>
              <rects>
                <_>
                  68 13 8 3 -1.</_>
                <_>
                  72 13 4 3 2.</_></rects>
              <tilted>0</tilted></feature>
            <threshold>-3.8123119156807661e-003</threshold>
            <left_val>0.6057568788528442</left_val>
            <right_val>-0.5151839852333069</right_val></_></_>
        <_>
          <_>
            <feature>
              <rects>
                <_>
                  19 19 57 1 -1.</_>
                <_>
                  38 19 19 1 3.</_></rects>
              <tilted>0</tilted></feature>
            <threshold>4.4684400199912488e-004</threshold>
            <left_val>-0.5784059166908264</left_val>
            <right_val>0.5347728729248047</right_val></_></_>
        <_>
          <_>
            <feature>
              <rects>
                <_>
                  32 10 8 8 -1.</_>
                <_>
                  32 10 4 4 2.</_>
                <_>
                  36 14 4 4 2.</_></rects>
              <tilted>0</tilted></feature>
            <threshold>-8.8621099712327123e-004</threshold>
            <left_val>0.4184601008892059</left_val>
            <right_val>-0.7113159894943237</right_val></_></_>
        <_>
          <_>
            <feature>
              <rects>
                <_>
                  18 0 28 6 -1.</_>
                <_>
                  25 0 14 6 2.</_></rects>
              <tilted>0</tilted></feature>
            <threshold>8.0616599007043988e-005</threshold>
            <left_val>-0.8754646182060242</left_val>
            <right_val>0.3135353922843933</right_val></_></_></trees>
      <stage_threshold>-0.7515217065811157</stage_threshold>
      <parent>10</parent>
      <next>-1</next></_>
    <_>
      <trees>
        <_>
          <_>
            <feature>
              <rects>
                <_>
                  26 3 8 2 -1.</_>
                <_>
                  28 3 4 2 2.</_></rects>
              <tilted>0</tilted></feature>
            <threshold>-2.8484659269452095e-003</threshold>
            <left_val>0.6710131764411926</left_val>
            <right_val>-0.3140892982482910</right_val></_></_>
        <_>
          <_>
            <feature>
              <rects>
                <_>
                  11 0 7 4 -1.</_>
                <_>
                  11 2 7 2 2.</_></rects>
              <tilted>0</tilted></feature>
            <threshold>-3.0954780522733927e-003</threshold>
            <left_val>0.3975684046745300</left_val>
            <right_val>-0.5651981830596924</right_val></_></_>
        <_>
          <_>
            <feature>
              <rects>
                <_>
                  2 7 1 4 -1.</_>
                <_>
                  2 8 1 2 2.</_></rects>
              <tilted>0</tilted></feature>
            <threshold>-1.2837050599046052e-004</threshold>
            <left_val>-0.8717094063758850</left_val>
            <right_val>0.1977977007627487</right_val></_></_>
        <_>
          <_>
            <feature>
              <rects>
                <_>
                  18 3 48 9 -1.</_>
                <_>
                  34 6 16 3 9.</_></rects>
              <tilted>0</tilted></feature>
            <threshold>0.0116836596280336</threshold>
            <left_val>-0.6935337185859680</left_val>
            <right_val>0.3346014022827148</right_val></_></_>
        <_>
          <_>
            <feature>
              <rects>
                <_>
                  57 0 3 6 -1.</_>
                <_>
                  58 2 1 2 9.</_></rects>
              <tilted>0</tilted></feature>
            <threshold>-7.8633185476064682e-003</threshold>
            <left_val>0.6994574069976807</left_val>
            <right_val>-0.4392229020595551</right_val></_></_>
        <_>
          <_>
            <feature>
              <rects>
                <_>
                  14 4 12 2 -1.</_>
                <_>
                  17 4 6 2 2.</_></rects>
              <tilted>0</tilted></feature>
            <threshold>1.3516870094463229e-003</threshold>
            <left_val>-0.5196539759635925</left_val>
            <right_val>0.6214138865470886</right_val></_></_>
        <_>
          <_>
            <feature>
              <rects>
                <_>
                  32 12 20 7 -1.</_>
                <_>
                  37 12 10 7 2.</_></rects>
              <tilted>0</tilted></feature>
            <threshold>-1.0755320545285940e-003</threshold>
            <left_val>0.3436338901519775</left_val>
            <right_val>-0.8345019817352295</right_val></_></_>
        <_>
          <_>
            <feature>
              <rects>
                <_>
                  39 5 6 3 -1.</_>
                <_>
                  41 5 2 3 3.</_></rects>
              <tilted>0</tilted></feature>
            <threshold>4.4389269314706326e-003</threshold>
            <left_val>-0.5008776187896729</left_val>
            <right_val>0.7171943187713623</right_val></_></_>
        <_>
          <_>
            <feature>
              <rects>
                <_>
                  55 17 16 2 -1.</_>
                <_>
                  59 17 8 2 2.</_></rects>
              <tilted>0</tilted></feature>
            <threshold>4.9411592772230506e-004</threshold>
            <left_val>-0.7833824157714844</left_val>
            <right_val>0.5462539792060852</right_val></_></_></trees>
      <stage_threshold>-1.1897280216217041</stage_threshold>
      <parent>11</parent>
      <next>-1</next></_>
    <_>
      <trees>
        <_>
          <_>
            <feature>
              <rects>
                <_>
                  19 10 20 4 -1.</_>
                <_>
                  19 12 20 2 2.</_></rects>
              <tilted>0</tilted></feature>
            <threshold>5.4258271120488644e-004</threshold>
            <left_val>-0.6492580771446228</left_val>
            <right_val>0.3270202875137329</right_val></_></_>
        <_>
          <_>
            <feature>
              <rects>
                <_>
                  13 4 2 4 -1.</_>
                <_>
                  12 5 2 2 2.</_></rects>
              <tilted>1</tilted></feature>
            <threshold>5.1123538287356496e-004</threshold>
            <left_val>-0.5460656881332398</left_val>
            <right_val>0.3875823020935059</right_val></_></_>
        <_>
          <_>
            <feature>
              <rects>
                <_>
                  0 0 2 12 -1.</_>
                <_>
                  0 3 2 6 2.</_></rects>
              <tilted>0</tilted></feature>
            <threshold>5.5220812100742478e-006</threshold>
            <left_val>-0.5694743990898132</left_val>
            <right_val>0.5183352231979370</right_val></_></_>
        <_>
          <_>
            <feature>
              <rects>
                <_>
                  0 19 10 1 -1.</_>
                <_>
                  5 19 5 1 2.</_></rects>
              <tilted>0</tilted></feature>
            <threshold>1.4246850041672587e-003</threshold>
            <left_val>-0.5714113712310791</left_val>
            <right_val>0.5314506292343140</right_val></_></_>
        <_>
          <_>
            <feature>
              <rects>
                <_>
                  43 0 4 14 -1.</_>
                <_>
                  43 0 4 7 2.</_></rects>
              <tilted>1</tilted></feature>
            <threshold>-2.8732740320265293e-003</threshold>
            <left_val>0.3267472982406616</left_val>
            <right_val>-0.8771296739578247</right_val></_></_>
        <_>
          <_>
            <feature>
              <rects>
                <_>
                  5 14 4 6 -1.</_>
                <_>
                  7 14 2 6 2.</_></rects>
              <tilted>0</tilted></feature>
            <threshold>-4.9935909919440746e-003</threshold>
            <left_val>0.7364354133605957</left_val>
            <right_val>-0.4703696966171265</right_val></_></_>
        <_>
          <_>
            <feature>
              <rects>
                <_>
                  0 12 33 6 -1.</_>
                <_>
                  11 12 11 6 3.</_></rects>
              <tilted>0</tilted></feature>
            <threshold>1.3232909841462970e-003</threshold>
            <left_val>-0.5186598896980286</left_val>
            <right_val>0.5980306267738342</right_val></_></_>
        <_>
          <_>
            <feature>
              <rects>
                <_>
                  19 12 20 6 -1.</_>
                <_>
                  19 14 20 2 3.</_></rects>
              <tilted>0</tilted></feature>
            <threshold>4.0281138353748247e-005</threshold>
            <left_val>-0.7471147775650024</left_val>
            <right_val>0.4572792947292328</right_val></_></_>
        <_>
          <_>
            <feature>
              <rects>
                <_>
                  41 3 6 6 -1.</_>
                <_>
                  43 5 2 2 9.</_></rects>
              <tilted>0</tilted></feature>
            <threshold>7.3881051503121853e-003</threshold>
            <left_val>-0.7702397704124451</left_val>
            <right_val>0.5374078750610352</right_val></_></_></trees>
      <stage_threshold>-1.0251150131225586</stage_threshold>
      <parent>12</parent>
      <next>-1</next></_></stages></haar_carplate>
</opencv_storage>
